<?xml version="1.0"?>
<opencv_storage>
<cascade>
  <stageType>BOOST</stageType>
  <featureType>HAAR</featureType>
  <height>48</height>
  <width>27</width>
  <stageParams>
    <boostType>GAB</boostType>
    <minHitRate>9.9900001287460327e-01</minHitRate>
    <maxFalseAlarm>2.5000000000000000e-01</maxFalseAlarm>
    <weightTrimRate>9.4999999999999996e-01</weightTrimRate>
    <maxDepth>1</maxDepth>
    <maxWeakCount>100</maxWeakCount></stageParams>
  <featureParams>
    <maxCatCount>0</maxCatCount>
    <featSize>1</featSize>
    <mode>BASIC</mode></featureParams>
  <stageNum>13</stageNum>
  <stages>
    <!-- stage 0 -->
    <_>
      <maxWeakCount>5</maxWeakCount>
      <stageThreshold>-1.5820392370223999e+00</stageThreshold>
      <weakClassifiers>
        <_>
          <internalNodes>
            0 -1 22 -5.2600029855966568e-02</internalNodes>
          <leafValues>
            8.1300809979438782e-03 -9.4941633939743042e-01</leafValues></_>
        <_>
          <internalNodes>
            0 -1 139 2.0592350512742996e-02</internalNodes>
          <leafValues>
            -8.4645700454711914e-01 3.6783850193023682e-01</leafValues></_>
        <_>
          <internalNodes>
            0 -1 12 -3.3789426088333130e-02</internalNodes>
          <leafValues>
            4.2266258597373962e-01 -8.1873762607574463e-01</leafValues></_>
        <_>
          <internalNodes>
            0 -1 92 -3.2813809812068939e-02</internalNodes>
          <leafValues>
            4.5236864686012268e-01 -9.2402452230453491e-01</leafValues></_>
        <_>
          <internalNodes>
            0 -1 102 -8.8490415364503860e-03</internalNodes>
          <leafValues>
            5.8020305633544922e-01 -5.3556752204895020e-01</leafValues></_></weakClassifiers></_>
    <!-- stage 1 -->
    <_>
      <maxWeakCount>8</maxWeakCount>
      <stageThreshold>-2.0504438877105713e+00</stageThreshold>
      <weakClassifiers>
        <_>
          <internalNodes>
            0 -1 69 3.9721939712762833e-02</internalNodes>
          <leafValues>
            -9.1962617635726929e-01 4.3589743971824646e-01</leafValues></_>
        <_>
          <internalNodes>
            0 -1 68 -2.3785138130187988e-01</internalNodes>
          <leafValues>
            -9.2795741558074951e-01 -7.2500281035900116e-02</leafValues></_>
        <_>
          <internalNodes>
            0 -1 147 8.4592998027801514e-03</internalNodes>
          <leafValues>
            -6.1273115873336792e-01 3.7060177326202393e-01</leafValues></_>
        <_>
          <internalNodes>
            0 -1 76 -7.9424485564231873e-02</internalNodes>
          <leafValues>
            -7.4918901920318604e-01 2.7835601568222046e-01</leafValues></_>
        <_>
          <internalNodes>
            0 -1 86 -7.2597102262079716e-03</internalNodes>
          <leafValues>
            4.3483006954193115e-01 -5.4026365280151367e-01</leafValues></_>
        <_>
          <internalNodes>
            0 -1 29 -2.3267902433872223e-02</internalNodes>
          <leafValues>
            5.8014208078384399e-01 -4.5400226116180420e-01</leafValues></_>
        <_>
          <internalNodes>
            0 -1 117 1.5103539917618036e-03</internalNodes>
          <leafValues>
            -4.2082625627517700e-01 5.1551818847656250e-01</leafValues></_>
        <_>
          <internalNodes>
            0 -1 58 2.0889433100819588e-02</internalNodes>
          <leafValues>
            -2.8394383192062378e-01 7.1192800998687744e-01</leafValues></_></weakClassifiers></_>
    <!-- stage 2 -->
    <_>
      <maxWeakCount>10</maxWeakCount>
      <stageThreshold>-1.9806302785873413e+00</stageThreshold>
      <weakClassifiers>
        <_>
          <internalNodes>
            0 -1 56 6.9557136157527566e-05</internalNodes>
          <leafValues>
            -9.0896421670913696e-01 2.3076923191547394e-01</leafValues></_>
        <_>
          <internalNodes>
            0 -1 45 -6.6982205025851727e-03</internalNodes>
          <leafValues>
            -2.3820665664970875e-03 -7.3546725511550903e-01</leafValues></_>
        <_>
          <internalNodes>
            0 -1 25 -4.8726767301559448e-02</internalNodes>
          <leafValues>
            -9.2653745412826538e-01 1.2789897620677948e-01</leafValues></_>
        <_>
          <internalNodes>
            0 -1 128 -3.8666918408125639e-03</internalNodes>
          <leafValues>
            4.2650556564331055e-01 -4.2138934135437012e-01</leafValues></_>
        <_>
          <internalNodes>
            0 -1 42 5.0002322532236576e-03</internalNodes>
          <leafValues>
            -4.5864409208297729e-01 3.8185718655586243e-01</leafValues></_>
        <_>
          <internalNodes>
            0 -1 125 1.2418611440807581e-03</internalNodes>
          <leafValues>
            -2.8002184629440308e-01 5.7830494642257690e-01</leafValues></_>
        <_>
          <internalNodes>
            0 -1 127 -5.6492828298360109e-04</internalNodes>
          <leafValues>
            4.8992270231246948e-01 -3.1346416473388672e-01</leafValues></_>
        <_>
          <internalNodes>
            0 -1 164 6.6237780265510082e-04</internalNodes>
          <leafValues>
            -4.0647557377815247e-01 3.8207244873046875e-01</leafValues></_>
        <_>
          <internalNodes>
            0 -1 110 -1.1073246598243713e-02</internalNodes>
          <leafValues>
            -7.3199766874313354e-01 2.3167799413204193e-01</leafValues></_>
        <_>
          <internalNodes>
            0 -1 124 -4.1437934851273894e-04</internalNodes>
          <leafValues>
            3.8083243370056152e-01 -4.2400667071342468e-01</leafValues></_></weakClassifiers></_>
    <!-- stage 3 -->
    <_>
      <maxWeakCount>12</maxWeakCount>
      <stageThreshold>-2.0485112667083740e+00</stageThreshold>
      <weakClassifiers>
        <_>
          <internalNodes>
            0 -1 38 8.6300641298294067e-02</internalNodes>
          <leafValues>
            -9.0643817186355591e-01 3.0000001192092896e-01</leafValues></_>
        <_>
          <internalNodes>
            0 -1 103 -6.0378778725862503e-03</internalNodes>
          <leafValues>
            1.2508301436901093e-01 -6.8124014139175415e-01</leafValues></_>
        <_>
          <internalNodes>
            0 -1 77 -3.8609363138675690e-02</internalNodes>
          <leafValues>
            8.8954851031303406e-02 -8.8848787546157837e-01</leafValues></_>
        <_>
          <internalNodes>
            0 -1 49 -4.2569782817736268e-04</internalNodes>
          <leafValues>
            3.8047569990158081e-01 -3.3437588810920715e-01</leafValues></_>
        <_>
          <internalNodes>
            0 -1 75 -4.9759935587644577e-02</internalNodes>
          <leafValues>
            -7.6174235343933105e-01 1.8829691410064697e-01</leafValues></_>
        <_>
          <internalNodes>
            0 -1 72 -5.3269574418663979e-03</internalNodes>
          <leafValues>
            4.9827867746353149e-01 -2.6179182529449463e-01</leafValues></_>
        <_>
          <internalNodes>
            0 -1 143 -2.8003531042486429e-04</internalNodes>
          <leafValues>
            3.5109579563140869e-01 -3.4528538584709167e-01</leafValues></_>
        <_>
          <internalNodes>
            0 -1 157 7.9655583249405026e-04</internalNodes>
          <leafValues>
            -3.5500073432922363e-01 3.7817260622978210e-01</leafValues></_>
        <_>
          <internalNodes>
            0 -1 170 -1.3830902753397822e-04</internalNodes>
          <leafValues>
            -6.9617265462875366e-01 2.0245049893856049e-01</leafValues></_>
        <_>
          <internalNodes>
            0 -1 160 -2.2924548829905689e-04</internalNodes>
          <leafValues>
            3.2638517022132874e-01 -4.1191172599792480e-01</leafValues></_>
        <_>
          <internalNodes>
            0 -1 60 1.6037638997659087e-03</internalNodes>
          <leafValues>
            -3.2556691765785217e-01 4.2561578750610352e-01</leafValues></_>
        <_>
          <internalNodes>
            0 -1 91 -1.0406844085082412e-03</internalNodes>
          <leafValues>
            3.9665380120277405e-01 -3.3615726232528687e-01</leafValues></_></weakClassifiers></_>
    <!-- stage 4 -->
    <_>
      <maxWeakCount>11</maxWeakCount>
      <stageThreshold>-1.7954216003417969e+00</stageThreshold>
      <weakClassifiers>
        <_>
          <internalNodes>
            0 -1 70 -4.6907095238566399e-03</internalNodes>
          <leafValues>
            -9.0727865695953369e-01 2.7272728085517883e-01</leafValues></_>
        <_>
          <internalNodes>
            0 -1 154 3.6713471636176109e-03</internalNodes>
          <leafValues>
            -6.5911459922790527e-01 2.7724789455533028e-02</leafValues></_>
        <_>
          <internalNodes>
            0 -1 51 -3.9561784267425537e-01</internalNodes>
          <leafValues>
            -6.8821358680725098e-01 1.0721533745527267e-01</leafValues></_>
        <_>
          <internalNodes>
            0 -1 21 4.8613790422677994e-03</internalNodes>
          <leafValues>
            1.0414233058691025e-01 -9.3488752841949463e-01</leafValues></_>
        <_>
          <internalNodes>
            0 -1 62 -8.5475817322731018e-03</internalNodes>
          <leafValues>
            4.0736645460128784e-01 -2.9924717545509338e-01</leafValues></_>
        <_>
          <internalNodes>
            0 -1 161 5.7028732262551785e-03</internalNodes>
          <leafValues>
            -3.9812636375427246e-01 3.0372250080108643e-01</leafValues></_>
        <_>
          <internalNodes>
            0 -1 90 1.2749300803989172e-03</internalNodes>
          <leafValues>
            -2.4093723297119141e-01 5.2015852928161621e-01</leafValues></_>
        <_>
          <internalNodes>
            0 -1 134 -8.8380342349410057e-03</internalNodes>
          <leafValues>
            4.8831555247306824e-01 -2.2399862110614777e-01</leafValues></_>
        <_>
          <internalNodes>
            0 -1 162 4.9659312935546041e-04</internalNodes>
          <leafValues>
            1.3727919757366180e-01 -7.6929438114166260e-01</leafValues></_>
        <_>
          <internalNodes>
            0 -1 118 1.1012952309101820e-03</internalNodes>
          <leafValues>
            -3.9851832389831543e-01 2.5716772675514221e-01</leafValues></_>
        <_>
          <internalNodes>
            0 -1 74 -2.3593485355377197e-02</internalNodes>
          <leafValues>
            8.1511116027832031e-01 -1.4577981829643250e-01</leafValues></_></weakClassifiers></_>
    <!-- stage 5 -->
    <_>
      <maxWeakCount>15</maxWeakCount>
      <stageThreshold>-1.8967206478118896e+00</stageThreshold>
      <weakClassifiers>
        <_>
          <internalNodes>
            0 -1 54 2.8293086215853691e-03</internalNodes>
          <leafValues>
            -9.0055251121520996e-01 7.1428573131561279e-01</leafValues></_>
        <_>
          <internalNodes>
            0 -1 130 -9.3804178759455681e-03</internalNodes>
          <leafValues>
            9.2473030090332031e-02 -6.1164492368698120e-01</leafValues></_>
        <_>
          <internalNodes>
            0 -1 50 -2.9498826712369919e-02</internalNodes>
          <leafValues>
            3.3457535505294800e-01 -3.1503492593765259e-01</leafValues></_>
        <_>
          <internalNodes>
            0 -1 43 -4.2989306151866913e-02</internalNodes>
          <leafValues>
            -7.0777535438537598e-01 1.3845407962799072e-01</leafValues></_>
        <_>
          <internalNodes>
            0 -1 46 -5.1309969276189804e-03</internalNodes>
          <leafValues>
            3.3095782995223999e-01 -3.1324625015258789e-01</leafValues></_>
        <_>
          <internalNodes>
            0 -1 57 1.0419593891128898e-03</internalNodes>
          <leafValues>
            -2.7046373486518860e-01 3.7025722861289978e-01</leafValues></_>
        <_>
          <internalNodes>
            0 -1 32 -2.3097114171832800e-03</internalNodes>
          <leafValues>
            2.9478892683982849e-01 -3.5772591829299927e-01</leafValues></_>
        <_>
          <internalNodes>
            0 -1 87 -4.6170491259545088e-05</internalNodes>
          <leafValues>
            2.3462124168872833e-01 -3.8430544734001160e-01</leafValues></_>
        <_>
          <internalNodes>
            0 -1 31 5.8790575712919235e-03</internalNodes>
          <leafValues>
            -1.7289218306541443e-01 6.0306781530380249e-01</leafValues></_>
        <_>
          <internalNodes>
            0 -1 89 3.1357286497950554e-03</internalNodes>
          <leafValues>
            -2.9513698816299438e-01 3.5246139764785767e-01</leafValues></_>
        <_>
          <internalNodes>
            0 -1 7 -2.2340088617056608e-04</internalNodes>
          <leafValues>
            -6.2799191474914551e-01 1.7122946679592133e-01</leafValues></_>
        <_>
          <internalNodes>
            0 -1 14 -8.5266306996345520e-04</internalNodes>
          <leafValues>
            3.5021141171455383e-01 -3.1383791565895081e-01</leafValues></_>
        <_>
          <internalNodes>
            0 -1 28 -3.2989098690450191e-03</internalNodes>
          <leafValues>
            4.0885242819786072e-01 -2.6483419537544250e-01</leafValues></_>
        <_>
          <internalNodes>
            0 -1 165 -2.4631093256175518e-03</internalNodes>
          <leafValues>
            2.4852986633777618e-01 -3.8003075122833252e-01</leafValues></_>
        <_>
          <internalNodes>
            0 -1 61 -1.1450610123574734e-02</internalNodes>
          <leafValues>
            5.2421957254409790e-01 -1.8784540891647339e-01</leafValues></_></weakClassifiers></_>
    <!-- stage 6 -->
    <_>
      <maxWeakCount>14</maxWeakCount>
      <stageThreshold>-1.7615418434143066e+00</stageThreshold>
      <weakClassifiers>
        <_>
          <internalNodes>
            0 -1 142 -4.7170389443635941e-02</internalNodes>
          <leafValues>
            5.0000000000000000e-01 -9.0309184789657593e-01</leafValues></_>
        <_>
          <internalNodes>
            0 -1 114 -1.7128664767369628e-03</internalNodes>
          <leafValues>
            8.3919599652290344e-02 -6.2925058603286743e-01</leafValues></_>
        <_>
          <internalNodes>
            0 -1 173 -1.8906220793724060e-03</internalNodes>
          <leafValues>
            1.5889105200767517e-01 -5.4293119907379150e-01</leafValues></_>
        <_>
          <internalNodes>
            0 -1 20 2.4606017395853996e-03</internalNodes>
          <leafValues>
            -3.0821439623832703e-01 3.6113658547401428e-01</leafValues></_>
        <_>
          <internalNodes>
            0 -1 9 1.3948441483080387e-04</internalNodes>
          <leafValues>
            1.3166081905364990e-01 -7.7427887916564941e-01</leafValues></_>
        <_>
          <internalNodes>
            0 -1 44 -6.3095055520534515e-04</internalNodes>
          <leafValues>
            -7.9582983255386353e-01 1.3695684075355530e-01</leafValues></_>
        <_>
          <internalNodes>
            0 -1 116 -3.8220845162868500e-02</internalNodes>
          <leafValues>
            -5.0977462530136108e-01 1.5960112214088440e-01</leafValues></_>
        <_>
          <internalNodes>
            0 -1 152 7.2447229176759720e-03</internalNodes>
          <leafValues>
            -2.4246193468570709e-01 4.2859584093093872e-01</leafValues></_>
        <_>
          <internalNodes>
            0 -1 150 -3.0497054103761911e-04</internalNodes>
          <leafValues>
            3.9080482721328735e-01 -2.5853875279426575e-01</leafValues></_>
        <_>
          <internalNodes>
            0 -1 131 9.8904846236109734e-03</internalNodes>
          <leafValues>
            -3.3915337920188904e-01 2.8730762004852295e-01</leafValues></_>
        <_>
          <internalNodes>
            0 -1 168 -1.1041944846510887e-02</internalNodes>
          <leafValues>
            -6.7256820201873779e-01 1.5956358611583710e-01</leafValues></_>
        <_>
          <internalNodes>
            0 -1 65 -3.3027786761522293e-02</internalNodes>
          <leafValues>
            4.3524029850959778e-01 -2.0903791487216949e-01</leafValues></_>
        <_>
          <internalNodes>
            0 -1 48 2.7976199053227901e-03</internalNodes>
          <leafValues>
            -1.5891970694065094e-01 6.1850398778915405e-01</leafValues></_>
        <_>
          <internalNodes>
            0 -1 169 -3.6937723052687943e-04</internalNodes>
          <leafValues>
            -7.6054465770721436e-01 1.3923297822475433e-01</leafValues></_></weakClassifiers></_>
    <!-- stage 7 -->
    <_>
      <maxWeakCount>15</maxWeakCount>
      <stageThreshold>-1.9357725381851196e+00</stageThreshold>
      <weakClassifiers>
        <_>
          <internalNodes>
            0 -1 55 2.8591144829988480e-02</internalNodes>
          <leafValues>
            -9.0304708480834961e-01 3.8461539149284363e-01</leafValues></_>
        <_>
          <internalNodes>
            0 -1 85 1.4100989792495966e-03</internalNodes>
          <leafValues>
            -6.0632508993148804e-01 3.4784656018018723e-02</leafValues></_>
        <_>
          <internalNodes>
            0 -1 167 5.0399440806359053e-04</internalNodes>
          <leafValues>
            7.7975071966648102e-02 -5.5462098121643066e-01</leafValues></_>
        <_>
          <internalNodes>
            0 -1 3 6.2030497938394547e-03</internalNodes>
          <leafValues>
            -1.8270349502563477e-01 4.6006584167480469e-01</leafValues></_>
        <_>
          <internalNodes>
            0 -1 144 -2.7741404483094811e-04</internalNodes>
          <leafValues>
            2.6995596289634705e-01 -3.5615697503089905e-01</leafValues></_>
        <_>
          <internalNodes>
            0 -1 129 -2.4357398506253958e-03</internalNodes>
          <leafValues>
            4.1287457942962646e-01 -2.2228191792964935e-01</leafValues></_>
        <_>
          <internalNodes>
            0 -1 98 -6.8992851302027702e-03</internalNodes>
          <leafValues>
            5.7172352075576782e-01 -1.2466900050640106e-01</leafValues></_>
        <_>
          <internalNodes>
            0 -1 172 -2.4496880359947681e-03</internalNodes>
          <leafValues>
            -7.4816125631332397e-01 1.1621619015932083e-01</leafValues></_>
        <_>
          <internalNodes>
            0 -1 52 8.4634004160761833e-03</internalNodes>
          <leafValues>
            -1.8410712480545044e-01 4.9101138114929199e-01</leafValues></_>
        <_>
          <internalNodes>
            0 -1 94 -1.7934555187821388e-02</internalNodes>
          <leafValues>
            5.8099585771560669e-01 -1.5514922142028809e-01</leafValues></_>
        <_>
          <internalNodes>
            0 -1 35 6.0800653882324696e-03</internalNodes>
          <leafValues>
            -2.3354858160018921e-01 3.9107927680015564e-01</leafValues></_>
        <_>
          <internalNodes>
            0 -1 34 -7.1764423046261072e-04</internalNodes>
          <leafValues>
            2.3489615321159363e-01 -3.4769707918167114e-01</leafValues></_>
        <_>
          <internalNodes>
            0 -1 163 -1.2621229514479637e-02</internalNodes>
          <leafValues>
            -3.0150330066680908e-01 2.7656212449073792e-01</leafValues></_>
        <_>
          <internalNodes>
            0 -1 141 1.0565943375695497e-04</internalNodes>
          <leafValues>
            -2.4731564521789551e-01 3.4724128246307373e-01</leafValues></_>
        <_>
          <internalNodes>
            0 -1 97 1.0754592716693878e-02</internalNodes>
          <leafValues>
            -2.2227424383163452e-01 4.1699942946434021e-01</leafValues></_></weakClassifiers></_>
    <!-- stage 8 -->
    <_>
      <maxWeakCount>18</maxWeakCount>
      <stageThreshold>-1.9328626394271851e+00</stageThreshold>
      <weakClassifiers>
        <_>
          <internalNodes>
            0 -1 63 -2.9390439391136169e-02</internalNodes>
          <leafValues>
            1. -8.9972400665283203e-01</leafValues></_>
        <_>
          <internalNodes>
            0 -1 37 -1.7236072570085526e-02</internalNodes>
          <leafValues>
            1.1756529659032822e-01 -6.0511618852615356e-01</leafValues></_>
        <_>
          <internalNodes>
            0 -1 30 -7.8113883500918746e-04</internalNodes>
          <leafValues>
            1.7016959190368652e-01 -4.1214480996131897e-01</leafValues></_>
        <_>
          <internalNodes>
            0 -1 4 -5.0319798290729523e-02</internalNodes>
          <leafValues>
            1.0635941475629807e-01 -6.9947338104248047e-01</leafValues></_>
        <_>
          <internalNodes>
            0 -1 23 -1.2403581291437149e-02</internalNodes>
          <leafValues>
            -7.1044391393661499e-01 1.2563672661781311e-01</leafValues></_>
        <_>
          <internalNodes>
            0 -1 115 -1.0298851411789656e-03</internalNodes>
          <leafValues>
            3.3467942476272583e-01 -2.6244142651557922e-01</leafValues></_>
        <_>
          <internalNodes>
            0 -1 159 1.8636812455952168e-04</internalNodes>
          <leafValues>
            1.1236749589443207e-01 -7.4915170669555664e-01</leafValues></_>
        <_>
          <internalNodes>
            0 -1 16 1.6630028840154409e-03</internalNodes>
          <leafValues>
            8.6397759616374969e-02 -7.9324805736541748e-01</leafValues></_>
        <_>
          <internalNodes>
            0 -1 105 -1.6427699010819197e-03</internalNodes>
          <leafValues>
            5.5677920579910278e-01 -1.5426903963088989e-01</leafValues></_>
        <_>
          <internalNodes>
            0 -1 24 -2.0386459305882454e-02</internalNodes>
          <leafValues>
            -7.1190100908279419e-01 1.3401506841182709e-01</leafValues></_>
        <_>
          <internalNodes>
            0 -1 99 -8.9214323088526726e-03</internalNodes>
          <leafValues>
            3.2825544476509094e-01 -2.6426368951797485e-01</leafValues></_>
        <_>
          <internalNodes>
            0 -1 138 -2.5500438641756773e-04</internalNodes>
          <leafValues>
            3.9361405372619629e-01 -2.0716398954391479e-01</leafValues></_>
        <_>
          <internalNodes>
            0 -1 78 1.8628634279593825e-04</internalNodes>
          <leafValues>
            1.4444680511951447e-01 -5.8329504728317261e-01</leafValues></_>
        <_>
          <internalNodes>
            0 -1 33 8.4781146142631769e-04</internalNodes>
          <leafValues>
            -2.4335956573486328e-01 3.6378246545791626e-01</leafValues></_>
        <_>
          <internalNodes>
            0 -1 6 -6.7328906152397394e-04</internalNodes>
          <leafValues>
            -8.8076591491699219e-01 9.1314189136028290e-02</leafValues></_>
        <_>
          <internalNodes>
            0 -1 83 -2.9385418165475130e-03</internalNodes>
          <leafValues>
            3.9054018259048462e-01 -2.1136869490146637e-01</leafValues></_>
        <_>
          <internalNodes>
            0 -1 171 2.1381000988185406e-04</internalNodes>
          <leafValues>
            -2.3748996853828430e-01 3.1955057382583618e-01</leafValues></_>
        <_>
          <internalNodes>
            0 -1 107 -4.6325067523866892e-04</internalNodes>
          <leafValues>
            4.1835975646972656e-01 -1.8568991124629974e-01</leafValues></_></weakClassifiers></_>
    <!-- stage 9 -->
    <_>
      <maxWeakCount>17</maxWeakCount>
      <stageThreshold>-1.7588800191879272e+00</stageThreshold>
      <weakClassifiers>
        <_>
          <internalNodes>
            0 -1 36 3.9783511310815811e-02</internalNodes>
          <leafValues>
            -8.9972400665283203e-01 1.</leafValues></_>
        <_>
          <internalNodes>
            0 -1 106 -1.7829334829002619e-03</internalNodes>
          <leafValues>
            -5.8056014776229858e-01 3.5819435119628906e-01</leafValues></_>
        <_>
          <internalNodes>
            0 -1 73 -2.6425607502460480e-02</internalNodes>
          <leafValues>
            3.8797728717327118e-02 -7.6520645618438721e-01</leafValues></_>
        <_>
          <internalNodes>
            0 -1 1 -7.3934585088863969e-04</internalNodes>
          <leafValues>
            -6.6259551048278809e-01 1.4151650667190552e-01</leafValues></_>
        <_>
          <internalNodes>
            0 -1 18 -1.9476037472486496e-02</internalNodes>
          <leafValues>
            5.6605643033981323e-01 -1.7156326770782471e-01</leafValues></_>
        <_>
          <internalNodes>
            0 -1 8 -1.2755872739944607e-04</internalNodes>
          <leafValues>
            -5.6204682588577271e-01 1.4826807379722595e-01</leafValues></_>
        <_>
          <internalNodes>
            0 -1 59 1.0021569905802608e-03</internalNodes>
          <leafValues>
            -1.9507128000259399e-01 4.0488618612289429e-01</leafValues></_>
        <_>
          <internalNodes>
            0 -1 81 -1.7381329962518066e-04</internalNodes>
          <leafValues>
            3.2353752851486206e-01 -2.2732141613960266e-01</leafValues></_>
        <_>
          <internalNodes>
            0 -1 148 4.0485545992851257e-02</internalNodes>
          <leafValues>
            -1.8333442509174347e-01 4.3054467439651489e-01</leafValues></_>
        <_>
          <internalNodes>
            0 -1 119 -8.4776304662227631e-02</internalNodes>
          <leafValues>
            -2.8704819083213806e-01 2.8086987137794495e-01</leafValues></_>
        <_>
          <internalNodes>
            0 -1 136 -3.0596146825700998e-04</internalNodes>
          <leafValues>
            4.3749538064002991e-01 -1.9472473859786987e-01</leafValues></_>
        <_>
          <internalNodes>
            0 -1 121 -6.3721714541316032e-03</internalNodes>
          <leafValues>
            7.4556016921997070e-01 -1.1098227649927139e-01</leafValues></_>
        <_>
          <internalNodes>
            0 -1 11 1.4732545241713524e-03</internalNodes>
          <leafValues>
            1.4609766006469727e-01 -6.1755400896072388e-01</leafValues></_>
        <_>
          <internalNodes>
            0 -1 71 4.2185910046100616e-02</internalNodes>
          <leafValues>
            -1.4732538163661957e-01 5.7111060619354248e-01</leafValues></_>
        <_>
          <internalNodes>
            0 -1 156 5.8992775157094002e-03</internalNodes>
          <leafValues>
            9.1257907450199127e-02 -8.9362800121307373e-01</leafValues></_>
        <_>
          <internalNodes>
            0 -1 126 1.0129646398127079e-03</internalNodes>
          <leafValues>
            -2.6891070604324341e-01 2.8970596194267273e-01</leafValues></_>
        <_>
          <internalNodes>
            0 -1 120 2.8652602806687355e-02</internalNodes>
          <leafValues>
            -2.2612755000591278e-01 3.5675311088562012e-01</leafValues></_></weakClassifiers></_>
    <!-- stage 10 -->
    <_>
      <maxWeakCount>19</maxWeakCount>
      <stageThreshold>-1.7698804140090942e+00</stageThreshold>
      <weakClassifiers>
        <_>
          <internalNodes>
            0 -1 26 2.2639485076069832e-02</internalNodes>
          <leafValues>
            -9.0059822797775269e-01 1.</leafValues></_>
        <_>
          <internalNodes>
            0 -1 108 -3.2666862010955811e-02</internalNodes>
          <leafValues>
            -2.5072276592254639e-02 -6.2262070178985596e-01</leafValues></_>
        <_>
          <internalNodes>
            0 -1 0 -8.0381589941680431e-04</internalNodes>
          <leafValues>
            -5.5808156728744507e-01 8.5483066737651825e-02</leafValues></_>
        <_>
          <internalNodes>
            0 -1 123 -1.4552708016708493e-03</internalNodes>
          <leafValues>
            6.2018543481826782e-02 -8.8288283348083496e-01</leafValues></_>
        <_>
          <internalNodes>
            0 -1 47 -7.5607538223266602e-02</internalNodes>
          <leafValues>
            -1.8172435462474823e-01 4.1366383433341980e-01</leafValues></_>
        <_>
          <internalNodes>
            0 -1 122 -4.3083969503641129e-03</internalNodes>
          <leafValues>
            5.4717659950256348e-01 -1.4385649561882019e-01</leafValues></_>
        <_>
          <internalNodes>
            0 -1 15 8.2338020205497742e-02</internalNodes>
          <leafValues>
            9.4940565526485443e-02 -8.3906072378158569e-01</leafValues></_>
        <_>
          <internalNodes>
            0 -1 13 -2.7286395197734237e-04</internalNodes>
          <leafValues>
            2.8450730443000793e-01 -2.8345674276351929e-01</leafValues></_>
        <_>
          <internalNodes>
            0 -1 133 2.7608897536993027e-02</internalNodes>
          <leafValues>
            -2.3972049355506897e-01 3.7455543875694275e-01</leafValues></_>
        <_>
          <internalNodes>
            0 -1 166 9.2082144692540169e-04</internalNodes>
          <leafValues>
            -2.5472176074981689e-01 3.3756023645401001e-01</leafValues></_>
        <_>
          <internalNodes>
            0 -1 132 1.1362822260707617e-03</internalNodes>
          <leafValues>
            1.6441613435745239e-01 -4.8843112587928772e-01</leafValues></_>
        <_>
          <internalNodes>
            0 -1 84 1.3283572625368834e-03</internalNodes>
          <leafValues>
            -1.6847386956214905e-01 5.0698685646057129e-01</leafValues></_>
        <_>
          <internalNodes>
            0 -1 96 -1.5031720977276564e-03</internalNodes>
          <leafValues>
            2.7270290255546570e-01 -2.6731312274932861e-01</leafValues></_>
        <_>
          <internalNodes>
            0 -1 158 1.9368526991456747e-03</internalNodes>
          <leafValues>
            9.7420401871204376e-02 -8.0828559398651123e-01</leafValues></_>
        <_>
          <internalNodes>
            0 -1 146 -2.7945883572101593e-02</internalNodes>
          <leafValues>
            -4.7120460867881775e-01 1.3385343551635742e-01</leafValues></_>
        <_>
          <internalNodes>
            0 -1 19 -6.7406720481812954e-03</internalNodes>
          <leafValues>
            1.1574767529964447e-01 -6.8416720628738403e-01</leafValues></_>
        <_>
          <internalNodes>
            0 -1 145 -6.7581227049231529e-03</internalNodes>
          <leafValues>
            6.2261469662189484e-02 -9.5967167615890503e-01</leafValues></_>
        <_>
          <internalNodes>
            0 -1 100 2.9380223713815212e-03</internalNodes>
          <leafValues>
            -2.2087886929512024e-01 3.5966643691062927e-01</leafValues></_>
        <_>
          <internalNodes>
            0 -1 53 7.8740650787949562e-03</internalNodes>
          <leafValues>
            -1.3070233166217804e-01 6.3673979043960571e-01</leafValues></_></weakClassifiers></_>
    <!-- stage 11 -->
    <_>
      <maxWeakCount>16</maxWeakCount>
      <stageThreshold>-1.7248873710632324e+00</stageThreshold>
      <weakClassifiers>
        <_>
          <internalNodes>
            0 -1 17 4.8083726316690445e-02</internalNodes>
          <leafValues>
            -8.9972400665283203e-01 1.</leafValues></_>
        <_>
          <internalNodes>
            0 -1 149 -2.8468370437622070e-03</internalNodes>
          <leafValues>
            -6.0615754127502441e-01 2.1837605163455009e-02</leafValues></_>
        <_>
          <internalNodes>
            0 -1 95 -4.6585742384195328e-03</internalNodes>
          <leafValues>
            -6.8976950645446777e-01 2.7861801907420158e-02</leafValues></_>
        <_>
          <internalNodes>
            0 -1 113 -2.6079982053488493e-03</internalNodes>
          <leafValues>
            -4.2861244082450867e-01 1.4612486958503723e-01</leafValues></_>
        <_>
          <internalNodes>
            0 -1 64 5.0790514796972275e-03</internalNodes>
          <leafValues>
            -1.8368640542030334e-01 3.7525433301925659e-01</leafValues></_>
        <_>
          <internalNodes>
            0 -1 5 8.0260520917363465e-05</internalNodes>
          <leafValues>
            2.3974697291851044e-01 -3.0415877699851990e-01</leafValues></_>
        <_>
          <internalNodes>
            0 -1 155 -2.7075974503532052e-04</internalNodes>
          <leafValues>
            2.2191597521305084e-01 -3.2734909653663635e-01</leafValues></_>
        <_>
          <internalNodes>
            0 -1 79 3.2613067887723446e-03</internalNodes>
          <leafValues>
            7.7033914625644684e-02 -8.4127920866012573e-01</leafValues></_>
        <_>
          <internalNodes>
            0 -1 109 7.0166744990274310e-05</internalNodes>
          <leafValues>
            -2.9717609286308289e-01 2.3946438729763031e-01</leafValues></_>
        <_>
          <internalNodes>
            0 -1 80 -6.0571078211069107e-04</internalNodes>
          <leafValues>
            4.2681664228439331e-01 -1.4970023930072784e-01</leafValues></_>
        <_>
          <internalNodes>
            0 -1 41 -9.0195011580362916e-04</internalNodes>
          <leafValues>
            -3.2484874129295349e-01 2.1601140499114990e-01</leafValues></_>
        <_>
          <internalNodes>
            0 -1 93 -6.1714548792224377e-05</internalNodes>
          <leafValues>
            2.6087573170661926e-01 -2.7313518524169922e-01</leafValues></_>
        <_>
          <internalNodes>
            0 -1 151 1.6805328777991235e-04</internalNodes>
          <leafValues>
            -2.7497690916061401e-01 2.7551689743995667e-01</leafValues></_>
        <_>
          <internalNodes>
            0 -1 137 -4.5038375537842512e-04</internalNodes>
          <leafValues>
            -9.7067177295684814e-01 7.0469252765178680e-02</leafValues></_>
        <_>
          <internalNodes>
            0 -1 135 -4.7125585377216339e-02</internalNodes>
          <leafValues>
            5.3257048130035400e-01 -1.5339437127113342e-01</leafValues></_>
        <_>
          <internalNodes>
            0 -1 112 1.6747230663895607e-02</internalNodes>
          <leafValues>
            1.1993578821420670e-01 -7.2810858488082886e-01</leafValues></_></weakClassifiers></_>
    <!-- stage 12 -->
    <_>
      <maxWeakCount>14</maxWeakCount>
      <stageThreshold>-9.5474487543106079e-01</stageThreshold>
      <weakClassifiers>
        <_>
          <internalNodes>
            0 -1 40 -7.4685648083686829e-02</internalNodes>
          <leafValues>
            -4.6666666865348816e-01 6.1904764175415039e-01</leafValues></_>
        <_>
          <internalNodes>
            0 -1 27 2.2897485177963972e-04</internalNodes>
          <leafValues>
            -4.0304970741271973e-01 3.0056756734848022e-01</leafValues></_>
        <_>
          <internalNodes>
            0 -1 104 -5.4647896438837051e-02</internalNodes>
          <leafValues>
            3.2687377929687500e-01 -3.7417581677436829e-01</leafValues></_>
        <_>
          <internalNodes>
            0 -1 2 3.0467240139842033e-02</internalNodes>
          <leafValues>
            1.6113330423831940e-01 -9.1133201122283936e-01</leafValues></_>
        <_>
          <internalNodes>
            0 -1 10 4.1470915311947465e-04</internalNodes>
          <leafValues>
            1.7756374180316925e-01 -7.8617304563522339e-01</leafValues></_>
        <_>
          <internalNodes>
            0 -1 82 9.3089770525693893e-03</internalNodes>
          <leafValues>
            -2.6259842514991760e-01 5.5297917127609253e-01</leafValues></_>
        <_>
          <internalNodes>
            0 -1 67 1.3435576111078262e-03</internalNodes>
          <leafValues>
            2.1744324266910553e-01 -7.8269535303115845e-01</leafValues></_>
        <_>
          <internalNodes>
            0 -1 39 -3.8071681046858430e-04</internalNodes>
          <leafValues>
            -2.3902760446071625e-01 7.7113109827041626e-01</leafValues></_>
        <_>
          <internalNodes>
            0 -1 140 5.4016122594475746e-03</internalNodes>
          <leafValues>
            -1.2545317411422729e-01 9.4823080301284790e-01</leafValues></_>
        <_>
          <internalNodes>
            0 -1 101 -2.2801331942901015e-04</internalNodes>
          <leafValues>
            5.1310479640960693e-01 -2.8434941172599792e-01</leafValues></_>
        <_>
          <internalNodes>
            0 -1 88 1.7837637569755316e-03</internalNodes>
          <leafValues>
            -3.1914326548576355e-01 6.1660802364349365e-01</leafValues></_>
        <_>
          <internalNodes>
            0 -1 153 -1.0289473721059039e-04</internalNodes>
          <leafValues>
            4.3101084232330322e-01 -3.3998733758926392e-01</leafValues></_>
        <_>
          <internalNodes>
            0 -1 66 -2.6777276070788503e-04</internalNodes>
          <leafValues>
            2.4327027797698975e-01 -6.3168841600418091e-01</leafValues></_>
        <_>
          <internalNodes>
            0 -1 111 1.6598291695117950e-03</internalNodes>
          <leafValues>
            -4.4077554345130920e-01 3.9984825253486633e-01</leafValues></_></weakClassifiers></_></stages>
  <features>
    <_>
      <rects>
        <_>
          0 0 1 6 -1.</_>
        <_>
          0 3 1 3 2.</_></rects>
      <tilted>0</tilted></_>
    <_>
      <rects>
        <_>
          0 0 4 4 -1.</_>
        <_>
          0 0 2 2 2.</_>
        <_>
          2 2 2 2 2.</_></rects>
      <tilted>0</tilted></_>
    <_>
      <rects>
        <_>
          0 12 24 5 -1.</_>
        <_>
          12 12 12 5 2.</_></rects>
      <tilted>0</tilted></_>
    <_>
      <rects>
        <_>
          0 15 27 4 -1.</_>
        <_>
          0 17 27 2 2.</_></rects>
      <tilted>0</tilted></_>
    <_>
      <rects>
        <_>
          0 16 3 31 -1.</_>
        <_>
          1 16 1 31 2.</_></rects>
      <tilted>0</tilted></_>
    <_>
      <rects>
        <_>
          0 18 1 6 -1.</_>
        <_>
          0 21 1 3 2.</_></rects>
      <tilted>0</tilted></_>
    <_>
      <rects>
        <_>
          0 27 2 6 -1.</_>
        <_>
          0 27 1 3 2.</_>
        <_>
          1 30 1 3 2.</_></rects>
      <tilted>0</tilted></_>
    <_>
      <rects>
        <_>
          0 29 2 6 -1.</_>
        <_>
          0 29 1 3 2.</_>
        <_>
          1 32 1 3 2.</_></rects>
      <tilted>0</tilted></_>
    <_>
      <rects>
        <_>
          0 31 4 2 -1.</_>
        <_>
          0 31 2 1 2.</_>
        <_>
          2 32 2 1 2.</_></rects>
      <tilted>0</tilted></_>
    <_>
      <rects>
        <_>
          0 37 2 1 -1.</_>
        <_>
          1 37 1 1 2.</_></rects>
      <tilted>0</tilted></_>
    <_>
      <rects>
        <_>
          1 0 2 4 -1.</_>
        <_>
          1 0 1 2 2.</_>
        <_>
          2 2 1 2 2.</_></rects>
      <tilted>0</tilted></_>
    <_>
      <rects>
        <_>
          1 1 2 6 -1.</_>
        <_>
          1 4 2 3 2.</_></rects>
      <tilted>0</tilted></_>
    <_>
      <rects>
        <_>
          1 5 12 35 -1.</_>
        <_>
          7 5 6 35 2.</_></rects>
      <tilted>0</tilted></_>
    <_>
      <rects>
        <_>
          1 26 10 2 -1.</_>
        <_>
          1 27 10 1 2.</_></rects>
      <tilted>0</tilted></_>
    <_>
      <rects>
        <_>
          1 34 10 4 -1.</_>
        <_>
          1 34 5 2 2.</_>
        <_>
          6 36 5 2 2.</_></rects>
      <tilted>0</tilted></_>
    <_>
      <rects>
        <_>
          2 0 22 8 -1.</_>
        <_>
          13 0 11 8 2.</_></rects>
      <tilted>0</tilted></_>
    <_>
      <rects>
        <_>
          2 1 4 6 -1.</_>
        <_>
          2 1 2 3 2.</_>
        <_>
          4 4 2 3 2.</_></rects>
      <tilted>0</tilted></_>
    <_>
      <rects>
        <_>
          2 10 12 13 -1.</_>
        <_>
          8 10 6 13 2.</_></rects>
      <tilted>0</tilted></_>
    <_>
      <rects>
        <_>
          2 17 18 6 -1.</_>
        <_>
          2 17 9 3 2.</_>
        <_>
          11 20 9 3 2.</_></rects>
      <tilted>0</tilted></_>
    <_>
      <rects>
        <_>
          2 40 3 5 -1.</_>
        <_>
          3 40 1 5 2.</_></rects>
      <tilted>0</tilted></_>
    <_>
      <rects>
        <_>
          2 46 25 2 -1.</_>
        <_>
          2 47 25 1 2.</_></rects>
      <tilted>0</tilted></_>
    <_>
      <rects>
        <_>
          3 0 10 40 -1.</_>
        <_>
          8 0 5 40 2.</_></rects>
      <tilted>0</tilted></_>
    <_>
      <rects>
        <_>
          3 6 8 35 -1.</_>
        <_>
          7 6 4 35 2.</_></rects>
      <tilted>0</tilted></_>
    <_>
      <rects>
        <_>
          3 18 2 6 -1.</_>
        <_>
          3 20 2 2 2.</_></rects>
      <tilted>0</tilted></_>
    <_>
      <rects>
        <_>
          3 30 24 4 -1.</_>
        <_>
          15 30 12 4 2.</_></rects>
      <tilted>0</tilted></_>
    <_>
      <rects>
        <_>
          3 32 6 8 -1.</_>
        <_>
          5 32 2 8 2.</_></rects>
      <tilted>0</tilted></_>
    <_>
      <rects>
        <_>
          3 38 6 8 -1.</_>
        <_>
          3 38 3 4 2.</_>
        <_>
          6 42 3 4 2.</_></rects>
      <tilted>0</tilted></_>
    <_>
      <rects>
        <_>
          3 42 12 2 -1.</_>
        <_>
          3 43 12 1 2.</_></rects>
      <tilted>0</tilted></_>
    <_>
      <rects>
        <_>
          4 6 2 26 -1.</_>
        <_>
          5 6 1 26 2.</_></rects>
      <tilted>0</tilted></_>
    <_>
      <rects>
        <_>
          4 8 6 32 -1.</_>
        <_>
          7 8 3 32 2.</_></rects>
      <tilted>0</tilted></_>
    <_>
      <rects>
        <_>
          4 9 5 4 -1.</_>
        <_>
          4 11 5 2 2.</_></rects>
      <tilted>0</tilted></_>
    <_>
      <rects>
        <_>
          4 16 10 6 -1.</_>
        <_>
          4 16 5 3 2.</_>
        <_>
          9 19 5 3 2.</_></rects>
      <tilted>0</tilted></_>
    <_>
      <rects>
        <_>
          4 30 8 2 -1.</_>
        <_>
          8 30 4 2 2.</_></rects>
      <tilted>0</tilted></_>
    <_>
      <rects>
        <_>
          4 32 10 2 -1.</_>
        <_>
          4 32 5 1 2.</_>
        <_>
          9 33 5 1 2.</_></rects>
      <tilted>0</tilted></_>
    <_>
      <rects>
        <_>
          4 34 6 2 -1.</_>
        <_>
          7 34 3 2 2.</_></rects>
      <tilted>0</tilted></_>
    <_>
      <rects>
        <_>
          4 38 14 4 -1.</_>
        <_>
          11 38 7 4 2.</_></rects>
      <tilted>0</tilted></_>
    <_>
      <rects>
        <_>
          5 0 11 6 -1.</_>
        <_>
          5 3 11 3 2.</_></rects>
      <tilted>0</tilted></_>
    <_>
      <rects>
        <_>
          5 2 12 4 -1.</_>
        <_>
          5 4 12 2 2.</_></rects>
      <tilted>0</tilted></_>
    <_>
      <rects>
        <_>
          5 20 10 20 -1.</_>
        <_>
          5 20 5 10 2.</_>
        <_>
          10 30 5 10 2.</_></rects>
      <tilted>0</tilted></_>
    <_>
      <rects>
        <_>
          5 28 4 17 -1.</_>
        <_>
          7 28 2 17 2.</_></rects>
      <tilted>0</tilted></_>
    <_>
      <rects>
        <_>
          5 33 18 12 -1.</_>
        <_>
          11 33 6 12 2.</_></rects>
      <tilted>0</tilted></_>
    <_>
      <rects>
        <_>
          5 35 16 2 -1.</_>
        <_>
          13 35 8 2 2.</_></rects>
      <tilted>0</tilted></_>
    <_>
      <rects>
        <_>
          5 36 8 12 -1.</_>
        <_>
          5 42 8 6 2.</_></rects>
      <tilted>0</tilted></_>
    <_>
      <rects>
        <_>
          5 41 16 3 -1.</_>
        <_>
          5 42 16 1 2.</_></rects>
      <tilted>0</tilted></_>
    <_>
      <rects>
        <_>
          5 47 4 1 -1.</_>
        <_>
          7 47 2 1 2.</_></rects>
      <tilted>0</tilted></_>
    <_>
      <rects>
        <_>
          6 1 13 4 -1.</_>
        <_>
          6 3 13 2 2.</_></rects>
      <tilted>0</tilted></_>
    <_>
      <rects>
        <_>
          6 5 6 9 -1.</_>
        <_>
          9 5 3 9 2.</_></rects>
      <tilted>0</tilted></_>
    <_>
      <rects>
        <_>
          6 5 16 9 -1.</_>
        <_>
          6 8 16 3 2.</_></rects>
      <tilted>0</tilted></_>
    <_>
      <rects>
        <_>
          6 7 18 2 -1.</_>
        <_>
          6 8 18 1 2.</_></rects>
      <tilted>0</tilted></_>
    <_>
      <rects>
        <_>
          6 10 1 4 -1.</_>
        <_>
          6 12 1 2 2.</_></rects>
      <tilted>0</tilted></_>
    <_>
      <rects>
        <_>
          6 10 18 8 -1.</_>
        <_>
          6 14 18 4 2.</_></rects>
      <tilted>0</tilted></_>
    <_>
      <rects>
        <_>
          6 13 18 30 -1.</_>
        <_>
          6 23 18 10 2.</_></rects>
      <tilted>0</tilted></_>
    <_>
      <rects>
        <_>
          6 17 20 4 -1.</_>
        <_>
          6 19 20 2 2.</_></rects>
      <tilted>0</tilted></_>
    <_>
      <rects>
        <_>
          6 22 18 1 -1.</_>
        <_>
          15 22 9 1 2.</_></rects>
      <tilted>0</tilted></_>
    <_>
      <rects>
        <_>
          6 32 15 3 -1.</_>
        <_>
          11 32 5 3 2.</_></rects>
      <tilted>0</tilted></_>
    <_>
      <rects>
        <_>
          6 36 8 4 -1.</_>
        <_>
          10 36 4 4 2.</_></rects>
      <tilted>0</tilted></_>
    <_>
      <rects>
        <_>
          6 36 18 1 -1.</_>
        <_>
          12 36 6 1 2.</_></rects>
      <tilted>0</tilted></_>
    <_>
      <rects>
        <_>
          6 38 15 2 -1.</_>
        <_>
          6 39 15 1 2.</_></rects>
      <tilted>0</tilted></_>
    <_>
      <rects>
        <_>
          6 42 19 6 -1.</_>
        <_>
          6 45 19 3 2.</_></rects>
      <tilted>0</tilted></_>
    <_>
      <rects>
        <_>
          6 45 5 2 -1.</_>
        <_>
          6 46 5 1 2.</_></rects>
      <tilted>0</tilted></_>
    <_>
      <rects>
        <_>
          6 46 19 2 -1.</_>
        <_>
          6 47 19 1 2.</_></rects>
      <tilted>0</tilted></_>
    <_>
      <rects>
        <_>
          7 0 11 4 -1.</_>
        <_>
          7 2 11 2 2.</_></rects>
      <tilted>0</tilted></_>
    <_>
      <rects>
        <_>
          7 1 5 8 -1.</_>
        <_>
          7 5 5 4 2.</_></rects>
      <tilted>0</tilted></_>
    <_>
      <rects>
        <_>
          7 3 4 6 -1.</_>
        <_>
          7 6 4 3 2.</_></rects>
      <tilted>0</tilted></_>
    <_>
      <rects>
        <_>
          7 4 4 18 -1.</_>
        <_>
          7 4 2 9 2.</_>
        <_>
          9 13 2 9 2.</_></rects>
      <tilted>0</tilted></_>
    <_>
      <rects>
        <_>
          7 4 15 2 -1.</_>
        <_>
          12 4 5 2 2.</_></rects>
      <tilted>0</tilted></_>
    <_>
      <rects>
        <_>
          7 14 2 24 -1.</_>
        <_>
          8 14 1 24 2.</_></rects>
      <tilted>0</tilted></_>
    <_>
      <rects>
        <_>
          7 15 2 27 -1.</_>
        <_>
          8 15 1 27 2.</_></rects>
      <tilted>0</tilted></_>
    <_>
      <rects>
        <_>
          7 15 15 24 -1.</_>
        <_>
          7 23 15 8 2.</_></rects>
      <tilted>0</tilted></_>
    <_>
      <rects>
        <_>
          7 23 8 20 -1.</_>
        <_>
          7 23 4 10 2.</_>
        <_>
          11 33 4 10 2.</_></rects>
      <tilted>0</tilted></_>
    <_>
      <rects>
        <_>
          7 35 15 7 -1.</_>
        <_>
          12 35 5 7 2.</_></rects>
      <tilted>0</tilted></_>
    <_>
      <rects>
        <_>
          7 38 12 10 -1.</_>
        <_>
          13 38 6 10 2.</_></rects>
      <tilted>0</tilted></_>
    <_>
      <rects>
        <_>
          8 0 12 4 -1.</_>
        <_>
          8 0 6 2 2.</_>
        <_>
          14 2 6 2 2.</_></rects>
      <tilted>0</tilted></_>
    <_>
      <rects>
        <_>
          8 1 13 24 -1.</_>
        <_>
          8 13 13 12 2.</_></rects>
      <tilted>0</tilted></_>
    <_>
      <rects>
        <_>
          8 2 8 14 -1.</_>
        <_>
          8 2 4 7 2.</_>
        <_>
          12 9 4 7 2.</_></rects>
      <tilted>0</tilted></_>
    <_>
      <rects>
        <_>
          8 17 17 30 -1.</_>
        <_>
          8 32 17 15 2.</_></rects>
      <tilted>0</tilted></_>
    <_>
      <rects>
        <_>
          8 17 18 6 -1.</_>
        <_>
          8 19 18 2 2.</_></rects>
      <tilted>0</tilted></_>
    <_>
      <rects>
        <_>
          8 19 12 9 -1.</_>
        <_>
          12 19 4 9 2.</_></rects>
      <tilted>0</tilted></_>
    <_>
      <rects>
        <_>
          8 25 2 5 -1.</_>
        <_>
          9 25 1 5 2.</_></rects>
      <tilted>0</tilted></_>
    <_>
      <rects>
        <_>
          8 26 10 1 -1.</_>
        <_>
          13 26 5 1 2.</_></rects>
      <tilted>0</tilted></_>
    <_>
      <rects>
        <_>
          8 31 4 4 -1.</_>
        <_>
          8 31 2 2 2.</_>
        <_>
          10 33 2 2 2.</_></rects>
      <tilted>0</tilted></_>
    <_>
      <rects>
        <_>
          8 34 7 2 -1.</_>
        <_>
          8 35 7 1 2.</_></rects>
      <tilted>0</tilted></_>
    <_>
      <rects>
        <_>
          9 0 12 6 -1.</_>
        <_>
          9 0 6 3 2.</_>
        <_>
          15 3 6 3 2.</_></rects>
      <tilted>0</tilted></_>
    <_>
      <rects>
        <_>
          9 1 11 2 -1.</_>
        <_>
          9 2 11 1 2.</_></rects>
      <tilted>0</tilted></_>
    <_>
      <rects>
        <_>
          9 1 12 2 -1.</_>
        <_>
          9 2 12 1 2.</_></rects>
      <tilted>0</tilted></_>
    <_>
      <rects>
        <_>
          9 4 6 2 -1.</_>
        <_>
          9 5 6 1 2.</_></rects>
      <tilted>0</tilted></_>
    <_>
      <rects>
        <_>
          9 8 18 10 -1.</_>
        <_>
          9 8 9 5 2.</_>
        <_>
          18 13 9 5 2.</_></rects>
      <tilted>0</tilted></_>
    <_>
      <rects>
        <_>
          9 17 2 6 -1.</_>
        <_>
          9 17 1 3 2.</_>
        <_>
          10 20 1 3 2.</_></rects>
      <tilted>0</tilted></_>
    <_>
      <rects>
        <_>
          9 19 2 28 -1.</_>
        <_>
          9 19 1 14 2.</_>
        <_>
          10 33 1 14 2.</_></rects>
      <tilted>0</tilted></_>
    <_>
      <rects>
        <_>
          9 28 5 8 -1.</_>
        <_>
          9 32 5 4 2.</_></rects>
      <tilted>0</tilted></_>
    <_>
      <rects>
        <_>
          9 34 4 3 -1.</_>
        <_>
          11 34 2 3 2.</_></rects>
      <tilted>0</tilted></_>
    <_>
      <rects>
        <_>
          10 1 4 7 -1.</_>
        <_>
          12 1 2 7 2.</_></rects>
      <tilted>0</tilted></_>
    <_>
      <rects>
        <_>
          10 1 14 22 -1.</_>
        <_>
          10 12 14 11 2.</_></rects>
      <tilted>0</tilted></_>
    <_>
      <rects>
        <_>
          10 28 2 2 -1.</_>
        <_>
          11 28 1 2 2.</_></rects>
      <tilted>0</tilted></_>
    <_>
      <rects>
        <_>
          10 38 8 9 -1.</_>
        <_>
          14 38 4 9 2.</_></rects>
      <tilted>0</tilted></_>
    <_>
      <rects>
        <_>
          11 0 16 1 -1.</_>
        <_>
          19 0 8 1 2.</_></rects>
      <tilted>0</tilted></_>
    <_>
      <rects>
        <_>
          11 1 16 2 -1.</_>
        <_>
          11 2 16 1 2.</_></rects>
      <tilted>0</tilted></_>
    <_>
      <rects>
        <_>
          11 7 8 7 -1.</_>
        <_>
          15 7 4 7 2.</_></rects>
      <tilted>0</tilted></_>
    <_>
      <rects>
        <_>
          11 8 8 6 -1.</_>
        <_>
          11 8 4 3 2.</_>
        <_>
          15 11 4 3 2.</_></rects>
      <tilted>0</tilted></_>
    <_>
      <rects>
        <_>
          11 20 10 26 -1.</_>
        <_>
          16 20 5 26 2.</_></rects>
      <tilted>0</tilted></_>
    <_>
      <rects>
        <_>
          11 25 12 6 -1.</_>
        <_>
          11 25 6 3 2.</_>
        <_>
          17 28 6 3 2.</_></rects>
      <tilted>0</tilted></_>
    <_>
      <rects>
        <_>
          11 34 6 2 -1.</_>
        <_>
          11 35 6 1 2.</_></rects>
      <tilted>0</tilted></_>
    <_>
      <rects>
        <_>
          12 0 3 10 -1.</_>
        <_>
          12 5 3 5 2.</_></rects>
      <tilted>0</tilted></_>
    <_>
      <rects>
        <_>
          12 1 5 4 -1.</_>
        <_>
          12 3 5 2 2.</_></rects>
      <tilted>0</tilted></_>
    <_>
      <rects>
        <_>
          12 1 8 9 -1.</_>
        <_>
          12 4 8 3 2.</_></rects>
      <tilted>0</tilted></_>
    <_>
      <rects>
        <_>
          12 5 6 1 -1.</_>
        <_>
          15 5 3 1 2.</_></rects>
      <tilted>0</tilted></_>
    <_>
      <rects>
        <_>
          12 5 3 3 -1.</_>
        <_>
          12 6 3 1 2.</_></rects>
      <tilted>0</tilted></_>
    <_>
      <rects>
        <_>
          12 7 2 3 -1.</_>
        <_>
          13 7 1 3 2.</_></rects>
      <tilted>0</tilted></_>
    <_>
      <rects>
        <_>
          12 12 9 12 -1.</_>
        <_>
          12 18 9 6 2.</_></rects>
      <tilted>0</tilted></_>
    <_>
      <rects>
        <_>
          12 36 6 2 -1.</_>
        <_>
          12 36 3 1 2.</_>
        <_>
          15 37 3 1 2.</_></rects>
      <tilted>0</tilted></_>
    <_>
      <rects>
        <_>
          13 0 3 3 -1.</_>
        <_>
          14 0 1 3 2.</_></rects>
      <tilted>0</tilted></_>
    <_>
      <rects>
        <_>
          13 1 14 4 -1.</_>
        <_>
          13 1 7 2 2.</_>
        <_>
          20 3 7 2 2.</_></rects>
      <tilted>0</tilted></_>
    <_>
      <rects>
        <_>
          13 11 14 2 -1.</_>
        <_>
          20 11 7 2 2.</_></rects>
      <tilted>0</tilted></_>
    <_>
      <rects>
        <_>
          13 17 3 16 -1.</_>
        <_>
          13 25 3 8 2.</_></rects>
      <tilted>0</tilted></_>
    <_>
      <rects>
        <_>
          13 20 11 2 -1.</_>
        <_>
          13 21 11 1 2.</_></rects>
      <tilted>0</tilted></_>
    <_>
      <rects>
        <_>
          14 6 6 2 -1.</_>
        <_>
          14 7 6 1 2.</_></rects>
      <tilted>0</tilted></_>
    <_>
      <rects>
        <_>
          14 14 3 22 -1.</_>
        <_>
          15 14 1 22 2.</_></rects>
      <tilted>0</tilted></_>
    <_>
      <rects>
        <_>
          14 22 6 4 -1.</_>
        <_>
          17 22 3 4 2.</_></rects>
      <tilted>0</tilted></_>
    <_>
      <rects>
        <_>
          14 23 6 3 -1.</_>
        <_>
          17 23 3 3 2.</_></rects>
      <tilted>0</tilted></_>
    <_>
      <rects>
        <_>
          15 4 9 15 -1.</_>
        <_>
          18 4 3 15 2.</_></rects>
      <tilted>0</tilted></_>
    <_>
      <rects>
        <_>
          15 6 12 9 -1.</_>
        <_>
          21 6 6 9 2.</_></rects>
      <tilted>0</tilted></_>
    <_>
      <rects>
        <_>
          15 7 6 3 -1.</_>
        <_>
          18 7 3 3 2.</_></rects>
      <tilted>0</tilted></_>
    <_>
      <rects>
        <_>
          15 7 12 2 -1.</_>
        <_>
          15 8 12 1 2.</_></rects>
      <tilted>0</tilted></_>
    <_>
      <rects>
        <_>
          15 11 2 3 -1.</_>
        <_>
          15 12 2 1 2.</_></rects>
      <tilted>0</tilted></_>
    <_>
      <rects>
        <_>
          15 16 2 4 -1.</_>
        <_>
          15 18 2 2 2.</_></rects>
      <tilted>0</tilted></_>
    <_>
      <rects>
        <_>
          15 23 3 4 -1.</_>
        <_>
          15 25 3 2 2.</_></rects>
      <tilted>0</tilted></_>
    <_>
      <rects>
        <_>
          15 28 12 4 -1.</_>
        <_>
          15 28 6 2 2.</_>
        <_>
          21 30 6 2 2.</_></rects>
      <tilted>0</tilted></_>
    <_>
      <rects>
        <_>
          16 6 3 2 -1.</_>
        <_>
          16 7 3 1 2.</_></rects>
      <tilted>0</tilted></_>
    <_>
      <rects>
        <_>
          16 25 6 16 -1.</_>
        <_>
          16 25 3 8 2.</_>
        <_>
          19 33 3 8 2.</_></rects>
      <tilted>0</tilted></_>
    <_>
      <rects>
        <_>
          16 33 4 10 -1.</_>
        <_>
          18 33 2 10 2.</_></rects>
      <tilted>0</tilted></_>
    <_>
      <rects>
        <_>
          16 39 8 4 -1.</_>
        <_>
          20 39 4 4 2.</_></rects>
      <tilted>0</tilted></_>
    <_>
      <rects>
        <_>
          17 0 8 14 -1.</_>
        <_>
          21 0 4 14 2.</_></rects>
      <tilted>0</tilted></_>
    <_>
      <rects>
        <_>
          17 0 10 1 -1.</_>
        <_>
          22 0 5 1 2.</_></rects>
      <tilted>0</tilted></_>
    <_>
      <rects>
        <_>
          17 1 6 45 -1.</_>
        <_>
          20 1 3 45 2.</_></rects>
      <tilted>0</tilted></_>
    <_>
      <rects>
        <_>
          17 3 6 14 -1.</_>
        <_>
          17 3 3 7 2.</_>
        <_>
          20 10 3 7 2.</_></rects>
      <tilted>0</tilted></_>
    <_>
      <rects>
        <_>
          17 4 8 44 -1.</_>
        <_>
          17 4 4 22 2.</_>
        <_>
          21 26 4 22 2.</_></rects>
      <tilted>0</tilted></_>
    <_>
      <rects>
        <_>
          17 7 1 2 -1.</_>
        <_>
          17 8 1 1 2.</_></rects>
      <tilted>0</tilted></_>
    <_>
      <rects>
        <_>
          17 20 1 2 -1.</_>
        <_>
          17 21 1 1 2.</_></rects>
      <tilted>0</tilted></_>
    <_>
      <rects>
        <_>
          17 26 2 2 -1.</_>
        <_>
          17 27 2 1 2.</_></rects>
      <tilted>0</tilted></_>
    <_>
      <rects>
        <_>
          17 28 10 13 -1.</_>
        <_>
          22 28 5 13 2.</_></rects>
      <tilted>0</tilted></_>
    <_>
      <rects>
        <_>
          17 29 1 12 -1.</_>
        <_>
          17 35 1 6 2.</_></rects>
      <tilted>0</tilted></_>
    <_>
      <rects>
        <_>
          17 32 2 1 -1.</_>
        <_>
          18 32 1 1 2.</_></rects>
      <tilted>0</tilted></_>
    <_>
      <rects>
        <_>
          18 8 8 10 -1.</_>
        <_>
          22 8 4 10 2.</_></rects>
      <tilted>0</tilted></_>
    <_>
      <rects>
        <_>
          18 9 5 2 -1.</_>
        <_>
          18 10 5 1 2.</_></rects>
      <tilted>0</tilted></_>
    <_>
      <rects>
        <_>
          18 15 6 2 -1.</_>
        <_>
          18 16 6 1 2.</_></rects>
      <tilted>0</tilted></_>
    <_>
      <rects>
        <_>
          18 19 4 6 -1.</_>
        <_>
          18 21 4 2 2.</_></rects>
      <tilted>0</tilted></_>
    <_>
      <rects>
        <_>
          18 27 6 6 -1.</_>
        <_>
          20 27 2 6 2.</_></rects>
      <tilted>0</tilted></_>
    <_>
      <rects>
        <_>
          18 31 8 7 -1.</_>
        <_>
          22 31 4 7 2.</_></rects>
      <tilted>0</tilted></_>
    <_>
      <rects>
        <_>
          19 1 6 40 -1.</_>
        <_>
          22 1 3 40 2.</_></rects>
      <tilted>0</tilted></_>
    <_>
      <rects>
        <_>
          19 21 3 3 -1.</_>
        <_>
          20 21 1 3 2.</_></rects>
      <tilted>0</tilted></_>
    <_>
      <rects>
        <_>
          19 34 4 2 -1.</_>
        <_>
          19 35 4 1 2.</_></rects>
      <tilted>0</tilted></_>
    <_>
      <rects>
        <_>
          19 36 2 4 -1.</_>
        <_>
          20 36 1 4 2.</_></rects>
      <tilted>0</tilted></_>
    <_>
      <rects>
        <_>
          20 10 4 28 -1.</_>
        <_>
          20 10 2 14 2.</_>
        <_>
          22 24 2 14 2.</_></rects>
      <tilted>0</tilted></_>
    <_>
      <rects>
        <_>
          20 12 6 2 -1.</_>
        <_>
          20 12 3 1 2.</_>
        <_>
          23 13 3 1 2.</_></rects>
      <tilted>0</tilted></_>
    <_>
      <rects>
        <_>
          20 13 6 6 -1.</_>
        <_>
          20 13 3 3 2.</_>
        <_>
          23 16 3 3 2.</_></rects>
      <tilted>0</tilted></_>
    <_>
      <rects>
        <_>
          20 22 1 18 -1.</_>
        <_>
          20 31 1 9 2.</_></rects>
      <tilted>0</tilted></_>
    <_>
      <rects>
        <_>
          20 27 7 4 -1.</_>
        <_>
          20 29 7 2 2.</_></rects>
      <tilted>0</tilted></_>
    <_>
      <rects>
        <_>
          20 31 2 7 -1.</_>
        <_>
          21 31 1 7 2.</_></rects>
      <tilted>0</tilted></_>
    <_>
      <rects>
        <_>
          22 1 4 6 -1.</_>
        <_>
          22 1 2 3 2.</_>
        <_>
          24 4 2 3 2.</_></rects>
      <tilted>0</tilted></_>
    <_>
      <rects>
        <_>
          22 4 2 2 -1.</_>
        <_>
          22 4 1 1 2.</_>
        <_>
          23 5 1 1 2.</_></rects>
      <tilted>0</tilted></_>
    <_>
      <rects>
        <_>
          22 13 3 2 -1.</_>
        <_>
          22 14 3 1 2.</_></rects>
      <tilted>0</tilted></_>
    <_>
      <rects>
        <_>
          22 15 4 25 -1.</_>
        <_>
          24 15 2 25 2.</_></rects>
      <tilted>0</tilted></_>
    <_>
      <rects>
        <_>
          23 5 4 1 -1.</_>
        <_>
          25 5 2 1 2.</_></rects>
      <tilted>0</tilted></_>
    <_>
      <rects>
        <_>
          23 13 1 21 -1.</_>
        <_>
          23 20 1 7 2.</_></rects>
      <tilted>0</tilted></_>
    <_>
      <rects>
        <_>
          24 1 2 16 -1.</_>
        <_>
          25 1 1 16 2.</_></rects>
      <tilted>0</tilted></_>
    <_>
      <rects>
        <_>
          24 10 3 10 -1.</_>
        <_>
          24 15 3 5 2.</_></rects>
      <tilted>0</tilted></_>
    <_>
      <rects>
        <_>
          24 11 2 6 -1.</_>
        <_>
          25 11 1 6 2.</_></rects>
      <tilted>0</tilted></_>
    <_>
      <rects>
        <_>
          25 0 1 14 -1.</_>
        <_>
          25 7 1 7 2.</_></rects>
      <tilted>0</tilted></_>
    <_>
      <rects>
        <_>
          25 4 1 22 -1.</_>
        <_>
          25 15 1 11 2.</_></rects>
      <tilted>0</tilted></_>
    <_>
      <rects>
        <_>
          25 22 2 3 -1.</_>
        <_>
          26 22 1 3 2.</_></rects>
      <tilted>0</tilted></_>
    <_>
      <rects>
        <_>
          25 34 2 2 -1.</_>
        <_>
          26 34 1 2 2.</_></rects>
      <tilted>0</tilted></_>
    <_>
      <rects>
        <_>
          25 46 2 2 -1.</_>
        <_>
          25 47 2 1 2.</_></rects>
      <tilted>0</tilted></_>
    <_>
      <rects>
        <_>
          26 1 1 8 -1.</_>
        <_>
          26 5 1 4 2.</_></rects>
      <tilted>0</tilted></_>
    <_>
      <rects>
        <_>
          26 31 1 3 -1.</_>
        <_>
          26 32 1 1 2.</_></rects>
      <tilted>0</tilted></_></features></cascade>
</opencv_storage>
